{"W1": [[-0.11064818501472473, -0.1914248913526535, -0.04224485531449318, 0.047633688896894455, 0.10658442229032516, 0.11515482515096664, 0.049975018948316574, 0.15519601106643677, -0.0668412297964096, -0.09544125199317932, -0.14529845118522644, -0.04740285128355026, 0.2943536043167114, 0.2290201038122177, 0.12594085931777954, 0.17293523252010345, 0.13873513042926788, 0.002113779541105032, -0.030862757936120033, -0.07401514053344727, -0.03684404492378235, -0.09243346750736237, 0.0897514745593071, 0.05498147010803223, 0.13597609102725983, 0.008846703916788101, -0.31004059314727783, -0.0879959911108017, -0.2297787368297577, -0.27212581038475037, 0.08690880239009857, -0.0763719379901886, -0.0679721087217331, -0.1825811117887497, -0.07439665496349335, -0.05906325578689575, -0.2634406089782715, 0.1211078017950058, 0.03215021640062332, -0.10435687005519867, -0.30863532423973083, -0.14030516147613525, 0.19537051022052765, -0.14282315969467163, -0.188055619597435, -0.2872364819049835, -0.11373701691627502, -0.3161673843860626, 0.2335371971130371, -0.31022611260414124], [-0.11559155583381653, -0.19362379610538483, 0.024901101365685463, -0.5809327960014343, 0.15159128606319427, 0.12235794961452484, 0.06612808257341385, 0.7201490998268127, -0.159667506814003, -0.11164946109056473, -0.14738775789737701, -0.03733139857649803, 0.38219112157821655, -0.3073215186595917, 0.12123649567365646, 0.1653018593788147, 0.15417389571666718, -0.19253617525100708, -0.0315021276473999, -0.06939404457807541, 0.16203369200229645, -0.3352547287940979, 0.08395012468099594, 0.06685560941696167, 0.24705488979816437, -0.23332028090953827, 0.038846783339977264, 0.4026639759540558, 0.29361864924430847, -0.005917695350944996, 0.40958747267723083, 0.4103308618068695, -0.15177594125270844, 0.14373762905597687, -0.17579397559165955, 0.1812787801027298, 0.2986620366573334, 0.36147502064704895, 0.3822058141231537, 0.3092662990093231, 0.33638057112693787, -0.035364747047424316, 0.05450624227523804, 0.19896270334720612, -0.09682809561491013, -0.006105777807533741, 0.12729327380657196, -0.14897635579109192, 0.09128842502832413, 0.31919151544570923], [-0.11149373650550842, -0.18794597685337067, -0.15094725787639618, 0.03169417753815651, 0.319900780916214, 0.1051664650440216, 0.049049198627471924, -0.08037713170051575, 0.1273544728755951, -0.2507181167602539, -0.1491726040840149, -0.048144303262233734, 0.38025835156440735, -0.1529722362756729, 0.1315481960773468, 0.17430537939071655, 0.07689318805932999, 0.24367733299732208, -0.02687743864953518, -0.06887863576412201, 0.21381835639476776, -0.039387766271829605, 0.09136276692152023, 0.05542529374361038, -0.13170991837978363, 0.06617466360330582, -0.03263039141893387, 0.024764854460954666, -0.278972864151001, 0.10854273289442062, -0.01470756996423006, 0.024165548384189606, -0.0687059834599495, 0.26590803265571594, 0.2282523512840271, 0.0078677823767066, -0.0766388401389122, 0.025761764496564865, -0.296082466840744, -0.29262033104896545, 0.1848125159740448, 0.0421840064227581, 0.18748897314071655, -0.14402127265930176, 0.02726115845143795, 0.2948714792728424, 0.3039129674434662, 0.28876230120658875, -0.028123777359724045, 0.15594132244586945], [-0.10510490834712982, -0.1893010139465332, -0.4828392565250397, -0.10427014529705048, 0.1403241902589798, 0.10696294158697128, 0.03861377388238907, 0.8461361527442932, 0.3755670487880707, 0.18587902188301086, -0.14977069199085236, -0.06022908538579941, 0.36704471707344055, -0.09591878205537796, 0.14089810848236084, 0.18329858779907227, 0.07693253457546234, 0.04437444731593132, -0.03494952619075775, -0.08191585540771484, 0.06877268105745316, -0.2726670801639557, 0.09269828349351883, 0.05385880917310715, -0.11500276625156403, -0.051854826509952545, -0.020162735134363174, -0.14695745706558228, -0.2562883496284485, -0.06200387701392174, -0.17409828305244446, 0.1744171380996704, -0.12523671984672546, -0.07803348451852798, 0.05807084962725639, -0.20929890871047974, -0.1713162362575531, 0.1688467115163803, 0.15842801332473755, -0.17882177233695984, -0.22152434289455414, 0.25964128971099854, -0.013157043606042862, -0.26616084575653076, 0.06152898818254471, 0.1942981779575348, 0.2681856155395508, 0.0016111930599436164, 0.3100731670856476, -0.0812169685959816], [-0.11286153644323349, -0.19058233499526978, -0.6428701877593994, -0.13279388844966888, -0.20303799211978912, 0.11826154589653015, 0.05252258479595184, -0.5356212854385376, -0.30665504932403564, 0.25949496030807495, -0.14360494911670685, -0.0509120337665081, 0.4899287223815918, 0.2821163833141327, 0.1322574019432068, 0.17100855708122253, 0.022212976589798927, -0.13445693254470825, -0.032722946256399155, -0.08507321029901505, -0.13629630208015442, 0.32638445496559143, 0.0968998447060585, 0.051130153238773346, -0.1702723503112793, 0.055225174874067307, 0.07877565175294876, 0.2282038778066635, 0.035558003932237625, 0.039968688040971756, 0.2240150272846222, 0.18852201104164124, 0.20503079891204834, 0.013264063745737076, -0.26608240604400635, 0.06822702288627625, -0.27900323271751404, -0.060468513518571854, -0.38804447650909424, 0.1387125849723816, 0.2145102322101593, -0.168947234749794, 0.0860956460237503, -0.1837078034877777, -0.39286041259765625, -0.3417656421661377, -0.40435928106307983, -0.3002639412879944, 0.023593630641698837, -0.24100983142852783], [-0.018701858818531036, -0.0410134494304657, -0.16163553297519684, 0.11900915205478668, -0.18139436841011047, -0.04482584074139595, -0.25643765926361084, -0.5270711183547974, 0.09079913794994354, 0.16739921271800995, 0.23634281754493713, -0.3583945035934448, -0.09841632097959518, -0.20723824203014374, -0.05804544687271118, -0.11813461780548096, -0.07712903618812561, -0.24599702656269073, -0.1689162701368332, 0.27059319615364075, 0.15547065436840057, 0.0915713906288147, -0.07742729038000107, 0.1661074459552765, -0.015392308123409748, -0.08394735306501389, -0.09712450206279755, 0.378386914730072, 0.007850468158721924, 0.3475876748561859, 0.09303610026836395, 0.41479241847991943, 0.13957087695598602, -0.00904015637934208, 0.17907463014125824, 0.4273519515991211, -0.03530190512537956, 0.17404556274414062, 0.10010595619678497, 0.2526002526283264, 0.07502609491348267, -0.0910755842924118, 0.38242459297180176, 0.055393386632204056, -0.05180619657039642, -0.012266721576452255, 0.15015818178653717, 0.11819426715373993, 0.17637735605239868, -0.10365812480449677]], "b1": [[0.06803864985704422], [-0.09653119742870331], [-0.0029060428496450186], [-0.05210312083363533], [0.09450222551822662], [-0.12304146587848663]]}