{"W1": [[-0.21008364856243134, -0.23654359579086304, -0.20515352487564087, -0.073695607483387, 0.1755201369524002, 0.1248084232211113, 0.3502698540687561, 0.02974894270300865, 0.01671873964369297, 0.04097975417971611, -0.06270112842321396, 0.010614405386149883, 0.37086689472198486, 0.23685181140899658, 0.13320523500442505, 0.3439677357673645, 0.195097878575325, 0.009945333935320377, -0.06299467384815216, -0.1025434136390686, 0.3918952941894531, -0.08460148423910141, 0.13503634929656982, 0.31624507904052734, -0.02014351636171341, 0.016678428277373314, -0.31787174940109253, -0.09582749009132385, -0.2376103699207306, -0.27995777130126953, 0.07907742261886597, -0.08420340716838837, -0.07580350339412689, -0.19041350483894348, -0.08222818374633789, -0.06689442694187164, -0.27127304673194885, 0.1132763922214508, 0.024318531155586243, -0.11218833923339844, -0.31646668910980225, -0.14813673496246338, 0.1875382363796234, -0.15065468847751617, -0.1958879828453064, -0.2950682044029236, -0.12156863510608673, -0.3239991068840027, 0.22570586204528809, -0.3180573284626007], [0.006864637136459351, -0.12141002714633942, 0.020007699728012085, -0.3226447105407715, 0.1568950116634369, -0.13551932573318481, 0.11439570784568787, 0.10471364855766296, 0.13055741786956787, 0.12085554003715515, -0.16479414701461792, 0.11474081873893738, 0.2918274998664856, -0.2107914686203003, 0.027978956699371338, -0.08639577031135559, 0.20994722843170166, -0.09600570797920227, -0.30665117502212524, -0.10676300525665283, -0.25670257210731506, -0.23872452974319458, -0.10998882353305817, 0.06404918432235718, -0.02932843565940857, -0.13679037988185883, -0.057683318853378296, 0.30612820386886597, 0.19708865880966187, -0.102447509765625, 0.31305181980133057, 0.31379520893096924, -0.24831075966358185, 0.04720678925514221, -0.2723294496536255, 0.08474817872047424, 0.20213204622268677, 0.2649424076080322, 0.28567028045654297, 0.21273624897003174, 0.23985034227371216, -0.1318947970867157, -0.042024195194244385, 0.10243269801139832, -0.19335786998271942, -0.10263559222221375, 0.030762284994125366, -0.24551081657409668, -0.0052426159381866455, 0.22266137599945068], [-0.06823216378688812, -0.2637905478477478, -0.28279930353164673, 0.030214982107281685, 0.11759738624095917, 0.1916065216064453, -0.19305333495140076, 0.24252773821353912, 0.013719211332499981, -0.261025607585907, -0.20060306787490845, -0.13190564513206482, 0.24714414775371552, -0.2198941558599472, 0.1997532844543457, 0.08532620966434479, 0.11855900287628174, 0.17675529420375824, 0.029492855072021484, -0.05944398418068886, -0.15091174840927124, -0.10631113499403, 0.019866395741701126, -0.18833507597446442, -0.08317102491855621, -0.0007490032003261149, 0.03429235517978668, 0.09168723970651627, -0.21205036342144012, 0.17546455562114716, 0.052215199917554855, 0.09108798205852509, -0.0017833119491115212, 0.33283233642578125, 0.2951764166355133, 0.07479014992713928, -0.009716168977320194, 0.09268426150083542, -0.2291596382856369, -0.2256975769996643, 0.2517361044883728, 0.1091064065694809, 0.2544126510620117, -0.07709860056638718, 0.09418344497680664, 0.3617957830429077, 0.3708372712135315, 0.35568660497665405, 0.038799211382865906, 0.22286322712898254], [-0.16075444221496582, -0.008175313472747803, -0.05351001024246216, -0.15629199147224426, 0.28819459676742554, -0.3164558410644531, -0.3085649013519287, 0.24330270290374756, -0.09643618762493134, -0.05470871925354004, -0.1367338001728058, -0.1264316290616989, 0.3225412964820862, -0.04381546378135681, -0.016217738389968872, 0.0010029077529907227, -0.03202629089355469, 0.0964762270450592, -0.22004765272140503, 0.15434986352920532, -0.011335432529449463, -0.22056451439857483, 0.213018536567688, -0.183150514960289, 0.061981797218322754, 0.00024887919425964355, -0.07226437330245972, -0.19906459748744965, -0.3084028661251068, -0.11410555243492126, -0.2262093722820282, 0.12231498956680298, -0.17733974754810333, -0.13013404607772827, 0.005968004465103149, -0.26141357421875, -0.22342698276042938, 0.11674457788467407, 0.10632574558258057, -0.23093365132808685, -0.273639053106308, 0.20753943920135498, -0.06525874137878418, -0.3182753622531891, 0.009426146745681763, 0.1421961784362793, 0.21608388423919678, -0.050490766763687134, 0.25797057151794434, -0.1333179622888565], [0.023047810420393944, 0.10265738517045975, -0.31582942605018616, -0.023959767073392868, 0.14567050337791443, -0.010002590715885162, -0.19391793012619019, -0.051693812012672424, -0.11870717257261276, -0.3145216405391693, -0.1791704297065735, 0.04008576646447182, 0.23527537286281586, 0.1808999627828598, -0.19420385360717773, 0.24475733935832977, -0.24167068302631378, -0.2356739193201065, 0.19693118333816528, -0.308284729719162, -0.07764969766139984, 0.22516082227230072, -0.2709353566169739, -0.13240551948547363, 0.013384757563471794, -0.046006664633750916, 0.1799926906824112, 0.3294526934623718, 0.13677461445331573, 0.14118514955043793, 0.3252639174461365, 0.2897711992263794, 0.3062801957130432, 0.11448770761489868, -0.164865180850029, 0.16944412887096405, -0.1777864694595337, 0.04075447469949722, -0.2867957055568695, 0.23992957174777985, 0.31575965881347656, -0.06772342324256897, 0.18731267750263214, -0.0824839174747467, -0.2916116714477539, -0.24054960906505585, -0.3031105101108551, -0.19904719293117523, 0.12481728196144104, -0.13979285955429077], [0.22585520148277283, 0.0777977705001831, -0.25694337487220764, 0.1869206428527832, -0.1160510927438736, 0.03596746176481247, -0.3011775314807892, -0.36982229351997375, 0.15800811350345612, 0.231183722615242, -0.07696139067411423, -0.38209086656570435, -0.24593371152877808, -0.14022187888622284, -0.2569367289543152, -0.28830844163894653, -0.20617623627185822, -0.17898042500019073, -0.05646674707531929, -0.050513967871665955, 0.08364809304475784, 0.1585777997970581, 0.0711125060915947, 0.19697216153144836, 0.02885540947318077, -0.01694030500948429, -0.1641422063112259, 0.311374694108963, -0.05916706845164299, 0.28057095408439636, 0.026017993688583374, 0.3477801978588104, 0.07255374640226364, -0.07605765014886856, 0.1120581403374672, 0.3603397309780121, -0.10231978446245193, 0.10702905803918839, 0.0330878384411335, 0.18558351695537567, 0.008007772266864777, -0.15809325873851776, 0.31541237235069275, -0.01162506453692913, -0.11882378906011581, -0.07928430289030075, 0.08314093202352524, 0.05117602273821831, 0.10936082154512405, -0.1706758588552475]], "b1": [[0.0758700966835022], [-1.1929599329087459e-24], [-0.06982870399951935], [0.0], [-0.0067213112488389015], [-0.05602310225367546]]}